{"latest":{"actual_weight":76.75,"predicted_adjusted_weight":77.48123168945312,"water_retention":-0.731231689453125,"base_metabolism_kcal":2474.59228515625},"series":{"actual_weight":[70.1,69.2,68.74395,68.2879,68.32,68.36,68.4,68.5,66.95,67.55,67.9,67.85,68.5,67.55,67.85,67.55,67.85,68.85,68.4,68.05,68.5,68.1,69.25,67.8,67.34,66.9627,67.1533,68.0,68.2,68.626,68.8,68.9,68.601,68.75,68.45,69.35,69.75,69.7,69.9,69.45,69.0,68.75,69.7,69.65,69.1,68.9,69.45,69.25,68.75,67.8,68.9,68.55,69.65,68.6,68.6,69.3,69.7,69.55,69.05,69.8,68.9,69.55,70.2,70.85,71.55,69.7,69.8,69.55,69.45,69.85,70.65,70.7,69.8,70.7,69.55,69.35,69.15,68.9,69.35,70.0,70.45,70.15,70.35,70.5,71.2,69.45,69.55,70.05,68.85,70.25,69.85,71.5,70.05,71.0,70.65,69.7,69.9,70.0,73.2,70.85,70.4,70.3,71.8,71.3,70.7,70.8,70.6,70.55,70.3,70.25,71.1,71.2,70.5,71.3,71.6,71.4,72.6,72.35,72.3,73.1,72.35,71.9,72.05,71.45,71.4,74.7,72.5,72.05,72.1,71.9,72.3,73.3,74.25,74.7,74.0,72.7,72.15,71.6,71.75,71.6,71.05,71.55,72.4,72.65,71.45,71.45,69.95,70.25,71.15,71.95,72.35,72.15,71.8,71.85,71.95,70.65,70.7,71.5,71.65,72.05,72.2,72.25,72.0,71.9,72.0,71.85,71.7,71.55,72.05,71.65,71.8,72.3,72.05,71.8,71.55,71.3,70.9,71.55,72.55,72.75,72.3,72.25,72.5,73.25,74.0,74.75,75.6,73.45,72.45,73.35,72.95,73.0,71.8,71.9,72.05,71.25,72.75,73.0,72.0,71.65,72.75,72.65,72.35,72.325,72.3,72.45,72.43,72.42,72.4,72.39,72.37,72.35,71.85,72.7,72.95,72.75,73.6,74.0,73.9,73.9,73.1,71.95,72.1,72.55,73.0,73.65,73.55,73.0,73.15,72.8,72.75,73.1,73.35,72.65,72.85,72.8,73.6,73.2,73.75,72.85,72.6,73.75,73.75,73.8,73.5,74.15,74.25,74.15,75.6,74.6,74.0,74.8,73.95,74.1,74.6,74.53,74.46,74.39,74.32,74.27,74.2,73.7,73.9,74.5,74.5,74.75,75.3,74.7,74.45,74.65,73.7,74.55,74.05,74.95,74.4,74.35,74.8,74.65,74.7,75.25,75.15,74.9,75.65,75.4,76.0,75.35,76.3,75.6,75.35,74.95,75.45,75.4,75.3,75.2625,75.225,75.1875,75.15,74.75,75.35,74.6,75.5,76.0,75.88125,75.76249999999999,75.64374999999998,75.52499999999998,75.40624999999997,75.28749999999997,75.16874999999996,75.05,74.65,75.15,74.65,74.2,74.95,75.8,75.95,75.55,75.15,75.45,74.65,74.65,75.05,76.2,75.65,75.55,74.55,74.55,75.15,75.85,75.9,75.4,75.75,76.0,75.65,75.9,75.6,75.85,75.55,75.7,75.05,75.9,75.2,75.2,75.3,76.45,75.95,75.6,76.0,75.8,75.5,76.0,76.45,76.4,76.55,75.9,76.4,75.5,76.6,75.45,75.55,75.75,76.5,75.35,74.8,76.35,76.35,75.05,74.75,75.9,75.9,75.75,75.55,75.0,75.1,75.3,75.0,74.6,74.5,75.0,75.2,75.2,75.0,74.8,74.6,75.625,76.65,75.6,74.8,75.75,76.05,77.15,76.75],"predicted_adjusted_weight":[69.05033111572266,68.9205551147461,68.85733795166016,68.77471160888672,68.68069458007812,68.56468200683594,68.43585968017578,68.3637466430664,68.2912368774414,68.20970153808594,68.12393188476562,68.09982299804688,68.04936218261719,67.96540832519531,67.94365692138672,67.94559478759766,67.901611328125,67.88006591796875,67.87015533447266,67.85017395019531,67.83226776123047,67.81478881835938,67.80665588378906,67.80834197998047,67.81766510009766,67.78074645996094,67.7147216796875,67.72439575195312,67.77283477783203,67.9568862915039,67.9503173828125,67.95391845703125,67.95175170898438,67.95323181152344,67.96783447265625,67.9676513671875,67.96208953857422,67.95905303955078,67.94136810302734,67.92074584960938,67.9144515991211,67.89522552490234,67.97454071044922,67.98500061035156,67.96605682373047,67.86644744873047,67.85535430908203,67.88880157470703,67.92506408691406,67.95870208740234,68.00617980957031,68.04219818115234,68.09693145751953,68.17088317871094,68.29681396484375,68.41458129882812,68.46394348144531,68.6151351928711,68.65203094482422,68.82768249511719,68.80909729003906,68.81239318847656,68.84040069580078,69.38528442382812,69.4399185180664,69.37068176269531,69.37126922607422,69.3365249633789,69.28083801269531,69.27853393554688,69.37936401367188,69.42322540283203,69.38824462890625,69.34111785888672,69.44844818115234,69.39634704589844,69.45234680175781,69.48932647705078,69.53130340576172,69.6223373413086,69.67382049560547,69.75708770751953,69.80452728271484,69.86946868896484,70.0404281616211,70.0487060546875,70.21379852294922,70.18991088867188,70.28076934814453,70.39997863769531,70.41800689697266,70.77751159667969,70.81446838378906,70.8522720336914,70.86016082763672,70.90909576416016,70.92655944824219,71.10626220703125,72.04019927978516,71.92096710205078,71.91976165771484,71.87427520751953,72.21514129638672,72.17594146728516,72.1609878540039,72.08951568603516,72.01420593261719,71.95929718017578,71.89017486572266,71.91886138916016,71.96804809570312,72.0118637084961,72.05352783203125,72.10962677001953,72.163818359375,72.20242309570312,72.25203704833984,72.3044204711914,72.34677124023438,72.6107177734375,72.5000228881836,72.51304626464844,72.4661865234375,72.42066192626953,72.41477966308594,72.76852416992188,72.58283233642578,72.50700378417969,72.44956970214844,72.41387939453125,72.46146392822266,72.37767028808594,72.31614685058594,72.93513488769531,72.69998931884766,72.50580596923828,72.30512237548828,72.15714263916016,72.01851654052734,71.97565460205078,71.92821502685547,71.90930938720703,71.86817169189453,71.87907409667969,71.84786224365234,71.81275939941406,72.08465576171875,71.87873840332031,71.8253173828125,71.79283905029297,71.77426147460938,71.77874755859375,71.83507537841797,71.83773803710938,71.8829116821289,71.7536849975586,71.72589874267578,71.71166229248047,71.74842071533203,71.73140716552734,71.72022247314453,71.71382141113281,71.68775177001953,71.65345001220703,71.67240905761719,71.66402435302734,71.73114776611328,71.78706359863281,71.77084350585938,71.76660919189453,71.76876068115234,71.8301773071289,72.14614868164062,72.3391342163086,72.47197723388672,72.46503448486328,72.38455200195312,72.54609680175781,72.77277374267578,72.8605728149414,72.7824478149414,72.76225280761719,72.79741668701172,72.8792495727539,73.1696548461914,73.52559661865234,73.51781463623047,73.4056625366211,73.3502197265625,73.45226287841797,73.34188842773438,73.2112045288086,73.1100845336914,73.0975570678711,72.94356536865234,72.82907104492188,72.83880615234375,72.81997680664062,72.76651000976562,72.75792694091797,72.91727447509766,72.88423919677734,72.86572265625,73.1173324584961,73.07080841064453,73.02021026611328,73.11658477783203,73.26995849609375,73.2529067993164,73.36957550048828,73.55724334716797,73.4959487915039,73.45403289794922,73.51751708984375,73.49160766601562,73.49578094482422,73.46295928955078,73.51356506347656,73.5357437133789,73.49320983886719,73.6595458984375,73.53721618652344,73.42405700683594,73.41362762451172,73.48655700683594,73.46527099609375,73.52325439453125,73.50402069091797,73.46683502197266,73.44758605957031,73.44002532958984,73.50112915039062,73.55619049072266,73.54633331298828,73.6604232788086,73.72178649902344,73.75279998779297,73.790283203125,73.88980102539062,73.8593521118164,73.92251586914062,74.100830078125,74.2607650756836,74.2801742553711,74.4241943359375,74.5694351196289,74.5496826171875,74.57012176513672,74.68783569335938,74.7460708618164,74.80022430419922,74.84449768066406,74.84940338134766,74.83480834960938,74.84874725341797,75.06226348876953,75.12789154052734,75.34312438964844,75.37347412109375,75.45379638671875,75.40679931640625,75.3795166015625,75.40086364746094,75.46939849853516,75.44158935546875,75.50725555419922,75.58964538574219,75.54745483398438,75.54601287841797,75.53451538085938,75.53821563720703,75.54478454589844,75.58934783935547,75.64742279052734,75.6296615600586,75.68738555908203,75.69295501708984,75.70410919189453,75.72721862792969,75.73224639892578,75.71055603027344,75.75987243652344,75.77845001220703,75.79792022705078,75.85493469238281,75.90526580810547,75.91805267333984,75.87744903564453,75.83759307861328,75.82270050048828,75.81986999511719,75.8200454711914,75.80746459960938,75.94773864746094,75.96011352539062,76.05006408691406,76.03585815429688,76.04656982421875,76.03650665283203,76.02841186523438,76.02783203125,75.99549102783203,75.98631286621094,76.0145492553711,76.0611801147461,76.0700912475586,76.09242248535156,76.08930969238281,76.09823608398438,76.12358856201172,76.11222839355469,76.0984878540039,76.09283447265625,76.12535858154297,76.20148468017578,76.1956787109375,76.28102111816406,76.30751037597656,76.3408203125,76.3353271484375,76.40018463134766,76.44007110595703,76.72555541992188,76.75013732910156,76.7760009765625,76.79879760742188,76.8080825805664,76.8272705078125,76.88545989990234,76.96959686279297,76.98735809326172,77.01637268066406,77.03543853759766,77.048095703125,77.12840270996094,77.14927673339844,77.17677307128906,77.23929595947266,77.25663757324219,77.24053955078125,77.16767883300781,77.16022491455078,77.14707946777344,77.18571472167969,77.15465545654297,77.20967102050781,77.21994018554688,77.24832153320312,77.3017349243164,77.31494903564453,77.2947998046875,77.34458923339844,77.332275390625,77.33196258544922,77.36021423339844,77.32725524902344,77.37425994873047,77.49979400634766,77.45912170410156,77.38496398925781,77.27139282226562,77.21940612792969,77.21420288085938,77.40135955810547,77.18379211425781,77.13751220703125,77.14440155029297,77.04373931884766,76.91619873046875,76.90340423583984,76.9098129272461,76.89391326904297,77.01998901367188,77.0229263305664,77.0293960571289,77.02754211425781,76.85883331298828,76.70569610595703,76.75178527832031,76.76176452636719,76.85875701904297,76.90846252441406,76.8779296875,76.87833404541016,76.90055847167969,77.1435546875,77.32298278808594,77.32752990722656,77.40229797363281,77.3787612915039,77.38899993896484,77.49066925048828,77.48123168945312],"water_retention":[1.049668884277338,0.2794448852539091,-0.11338795166015814,-0.48681160888672537,-0.3606945800781318,-0.20468200683593807,-0.035859680175775566,0.13625335693359375,-1.3412368774414034,-0.6597015380859403,-0.22393188476561932,-0.24982299804688068,0.4506378173828125,-0.41540832519531534,-0.09365692138672443,-0.3955947875976591,-0.051611328125005684,0.9699340820312443,0.5298446655273494,0.19982604980468466,0.6677322387695312,0.2852111816406193,1.4433441162109375,-0.008341979980471592,-0.47766510009765284,-0.8180464599609394,-0.5614216796874985,0.275604248046875,0.4271652221679716,0.6691137084960985,0.8496826171874972,0.9460815429687557,0.6492482910156241,0.7967681884765625,0.48216552734375284,1.3823486328124943,1.7879104614257812,1.7409469604492216,1.958631896972662,1.5292541503906278,1.0855484008789062,0.8547744750976562,1.725459289550784,1.6649993896484432,1.1339431762695256,1.033552551269537,1.5946456909179716,1.3611984252929688,0.8249359130859375,-0.1587020874023466,0.8938201904296932,0.5078018188476534,1.5530685424804744,0.4291168212890568,0.3031860351562443,0.8854187011718722,1.2360565185546903,0.9348648071289034,0.3979690551757784,0.9723175048828097,0.09090270996094318,0.7376068115234347,1.3595993041992216,1.4647155761718693,2.110081481933591,0.32931823730469034,0.4287307739257784,0.2134750366210909,0.16916198730469034,0.5714660644531193,1.2706359863281307,1.2767745971679716,0.41175537109374716,1.358882141113284,0.10155181884765341,-0.046347045898443184,-0.3023468017578068,-0.5893264770507756,-0.18130340576172443,0.37766265869140625,0.7761795043945341,0.39291229248047443,0.5454727172851506,0.6305313110351562,1.159571838378909,-0.5987060546874972,-0.6637985229492216,-0.13991088867187784,-1.430769348144537,-0.1499786376953125,-0.5680068969726619,0.7224884033203125,-0.7644683837890653,0.14772796630859375,-0.21016082763671307,-1.2090957641601534,-1.0265594482421818,-1.10626220703125,1.1598007202148466,-1.070967102050787,-1.519761657714838,-1.574275207519534,-0.4151412963867216,-0.8759414672851591,-1.4609878540039034,-1.289515686035159,-1.4142059326171932,-1.409297180175784,-1.590174865722659,-1.6688613891601562,-0.8680480957031307,-0.8118637084960909,-1.55352783203125,-0.8096267700195341,-0.5638183593750057,-0.8024230957031193,0.34796295166015057,0.045579528808588066,-0.04677124023437784,0.4892822265624943,-0.15002288818359943,-0.6130462646484318,-0.41618652343750284,-0.9706619262695284,-1.0147796630859318,1.9314758300781278,-0.08283233642578125,-0.45700378417969034,-0.3495697021484432,-0.5138793945312443,-0.1614639282226591,0.9223297119140597,1.9338531494140625,1.7648651123046903,1.3000106811523438,0.1941940307617216,-0.15512237548827557,-0.5571426391601619,-0.26851654052734375,-0.37565460205078693,-0.8782150268554716,-0.3593093872070341,0.5318283081054744,0.7709259033203182,-0.3978622436523409,-0.36275939941405966,-2.134655761718747,-1.6287384033203125,-0.6753173828124943,0.1571609497070341,0.5757385253906193,0.3712524414062557,-0.03507537841797159,0.012261962890619316,0.06708831787109659,-1.103684997558588,-1.0258987426757784,-0.21166229248046875,-0.09842071533202557,0.3185928344726534,0.4797775268554716,0.5361785888671875,0.31224822998046875,0.24654998779297443,0.3275909423828125,0.18597564697265057,-0.031147766113278408,-0.23706359863281534,0.27915649414062216,-0.11660919189452557,0.031239318847653408,0.4698226928710909,-0.09614868164062784,-0.5391342163085966,-0.9219772338867216,-1.165034484863284,-1.4845520019531193,-0.9960968017578153,-0.2227737426757841,-0.11057281494140625,-0.4824478149414091,-0.5122528076171875,-0.29741668701171875,0.37075042724609375,0.8303451538085938,1.2244033813476562,2.0821853637695256,0.04433746337890909,-0.9002197265624972,-0.10226287841797443,-0.39188842773437216,-0.21120452880859375,-1.310084533691409,-1.197557067871088,-0.8935653686523466,-1.579071044921875,-0.08880615234375,0.180023193359375,-0.766510009765625,-1.107926940917963,-0.16727447509765625,-0.23423919677733807,-0.5157226562500057,-0.7923324584960909,-0.7708084106445341,-0.5702102661132784,-0.6865847778320244,-0.8499584960937483,-0.8529067993164006,-0.9795755004882807,-1.1872433471679642,-1.145948791503912,-1.6040328979492244,-0.8175170898437472,-0.5416076660156222,-0.7457809448242188,0.13704071044921307,0.4864349365234375,0.36425628662109943,0.4067901611328182,-0.5595458984375057,-1.5872161865234347,-1.3240570068359432,-0.8636276245117216,-0.4865570068359375,0.18472900390625568,0.026745605468747158,-0.5040206909179688,-0.31683502197265057,-0.6475860595703153,-0.6900253295898438,-0.4011291503906307,-0.20619049072266193,-0.8963333129882756,-0.8104232788085994,-0.9217864990234403,-0.15279998779297443,-0.5902832031249972,-0.139801025390625,-1.009352111816412,-1.3225158691406307,-0.350830078125,-0.5107650756835938,-0.4801742553710966,-0.9241943359375,-0.41943511962890057,-0.2996826171875,-0.42012176513671307,0.9121643066406193,-0.14607086181641193,-0.8002243041992188,-0.04449768066406534,-0.8994033813476534,-0.7348083496093807,-0.24874725341797443,-0.5322634887695301,-0.66789154052735,-0.9531243896484369,-1.0534741210937568,-1.183796386718754,-1.2067993164062472,-1.6795166015624972,-1.5008636474609318,-0.9693984985351562,-0.94158935546875,-0.7572555541992188,-0.28964538574219034,-0.8474548339843722,-1.096012878417966,-0.8845153808593693,-1.8382156372070284,-0.9947845458984403,-1.5393478393554716,-0.6974227905273409,-1.229661560058588,-1.337385559082037,-0.8929550170898466,-1.0541091918945256,-1.0272186279296847,-0.48224639892578125,-0.5605560302734318,-0.8598724365234318,-0.12845001220702557,-0.39792022705077557,0.1450653076171875,-0.5552658081054744,0.3819473266601534,-0.27744903564453693,-0.48759307861328693,-0.8727005004882784,-0.36986999511718466,-0.42004547119140057,-0.5074645996093778,-0.6852386474609347,-0.7351135253906307,-0.8625640869140625,-0.8858581542968693,-1.29656982421875,-0.6865066528320369,-1.4284118652343807,-0.52783203125,0.00450897216796875,-0.10506286621094318,-0.2520492553711051,-0.4174301147461108,-0.5450912475586165,-0.6861724853515909,-0.8018096923828466,-0.9294860839844148,-1.0735885620117216,-1.4622283935546818,-0.9484878540039006,-1.4428344726562443,-1.925358581542966,-1.2514846801757784,-0.39567871093750284,-0.33102111816405966,-0.7575103759765653,-1.1908203124999943,-0.8853271484374972,-1.7501846313476506,-1.7900711059570256,-1.6755554199218778,-0.5501373291015597,-1.1260009765624943,-1.2487976074218778,-2.258082580566409,-2.277270507812503,-1.735459899902338,-1.1195968627929744,-1.087358093261713,-1.6163726806640568,-1.2854385375976562,-1.048095703125,-1.4784027099609318,-1.2492767333984318,-1.5767730712890682,-1.389295959472662,-1.7066375732421903,-1.5405395507812472,-2.1176788330078153,-1.2602249145507756,-1.9470794677734347,-1.9857147216796847,-1.8546554565429716,-0.7596710205078097,-1.2699401855468722,-1.6483215332031307,-1.3017349243164062,-1.514949035644534,-1.7947998046875,-1.3445892333984375,-0.8822753906249972,-0.9319625854492131,-0.8102142333984403,-1.4272552490234318,-0.9742599487304631,-1.9997940063476562,-0.8591217041015682,-1.9349639892578097,-1.7213928222656278,-1.4694061279296875,-0.714202880859375,-2.0513595581054744,-2.3837921142578153,-0.7875122070312557,-0.7944015502929744,-1.993739318847659,-2.16619873046875,-1.003404235839838,-1.009812927246088,-1.1439132690429688,-1.4699890136718778,-2.0229263305664062,-1.929396057128912,-1.7275421142578153,-1.8588333129882812,-2.105696105957037,-2.2517852783203125,-1.7617645263671875,-1.658757019042966,-1.7084625244140597,-1.8779296875,-2.078334045410159,-2.300558471679693,-1.5185546875,-0.6729827880859318,-1.7275299072265682,-2.6022979736328153,-1.6287612915039062,-1.3389999389648466,-0.34066925048827557,-0.731231689453125],"base_metabolism_kcal":[2449.007080078125,2423.419677734375,2402.300537109375,2371.490234375,2334.85400390625,2303.5908203125,2274.06298828125,2242.40087890625,2223.088623046875,2210.20556640625,2194.219482421875,2174.117431640625,2159.339599609375,2140.63037109375,2130.598388671875,2116.434814453125,2113.0986328125,2110.72900390625,2107.98486328125,2106.850830078125,2101.331298828125,2101.60205078125,2084.734130859375,2060.187255859375,2026.96728515625,1992.4658203125,1956.7103271484375,1927.8453369140625,1912.311767578125,1904.152587890625,1902.0233154296875,1900.0098876953125,1902.2283935546875,1898.82275390625,1899.791259765625,1899.2613525390625,1902.123291015625,1906.2100830078125,1911.511962890625,1917.34375,1922.601806640625,1929.5076904296875,1938.3641357421875,1945.4278564453125,1936.5684814453125,1936.12744140625,1934.915771484375,1927.7239990234375,1917.516845703125,1907.01220703125,1889.216796875,1868.58984375,1845.181640625,1838.282958984375,1818.7017822265625,1799.3797607421875,1782.4229736328125,1756.9105224609375,1744.288818359375,1723.524169921875,1696.8197021484375,1670.8438720703125,1685.3138427734375,1683.2994384765625,1686.7015380859375,1685.0950927734375,1682.8046875,1681.6810302734375,1682.1488037109375,1680.2158203125,1681.851806640625,1684.8477783203125,1689.811767578125,1698.6378173828125,1705.833251953125,1711.6639404296875,1717.5133056640625,1723.213623046875,1731.17529296875,1742.14599609375,1749.4520263671875,1756.6011962890625,1762.876708984375,1771.6942138671875,1780.8529052734375,1788.3282470703125,1797.619384765625,1797.8427734375,1798.8702392578125,1800.708984375,1814.1407470703125,1813.5474853515625,1815.620849609375,1814.595458984375,1810.52880859375,1807.7247314453125,1812.8658447265625,1850.222412109375,1859.73193359375,1867.52978515625,1873.1629638671875,1889.7120361328125,1898.667236328125,1903.8115234375,1911.3519287109375,1914.7093505859375,1912.350341796875,1901.363525390625,1892.7259521484375,1884.9595947265625,1873.396240234375,1864.091796875,1865.104248046875,1871.599365234375,1876.8121337890625,1881.8148193359375,1883.0650634765625,1886.840576171875,1909.630126953125,1919.1624755859375,1925.1180419921875,1928.9830322265625,1934.8153076171875,1935.458984375,1955.5067138671875,1968.04052734375,1972.96240234375,1977.7757568359375,1982.57275390625,1986.2249755859375,1991.8216552734375,2003.7996826171875,2041.94091796875,2061.68408203125,2075.528076171875,2086.018310546875,2086.924560546875,2085.860107421875,2082.068359375,2082.080810546875,2079.400390625,2084.761962890625,2088.324462890625,2090.72509765625,2096.234130859375,2119.932861328125,2120.237548828125,2124.84814453125,2126.0693359375,2131.297607421875,2133.916748046875,2137.6826171875,2138.88232421875,2141.908447265625,2142.3466796875,2145.397216796875,2157.134765625,2164.806396484375,2172.2236328125,2179.551025390625,2184.84130859375,2189.141845703125,2190.10107421875,2191.00439453125,2212.441162109375,2207.464111328125,2197.95458984375,2191.586181640625,2190.43701171875,2199.401123046875,2199.156494140625,2212.29052734375,2212.203857421875,2206.960205078125,2194.909912109375,2192.040771484375,2190.679443359375,2201.383056640625,2206.158935546875,2208.531982421875,2211.85693359375,2216.275146484375,2219.5595703125,2231.557861328125,2243.570068359375,2246.838623046875,2252.518310546875,2258.03271484375,2262.476318359375,2263.8388671875,2266.13330078125,2266.419189453125,2261.746337890625,2255.631591796875,2246.447998046875,2250.727294921875,2259.65283203125,2260.333740234375,2259.051513671875,2265.75830078125,2270.1845703125,2274.3232421875,2301.731689453125,2301.21630859375,2309.17431640625,2313.260498046875,2312.742919921875,2304.64111328125,2295.83935546875,2309.71533203125,2302.700439453125,2299.30322265625,2299.4189453125,2299.54541015625,2299.98681640625,2305.148193359375,2312.689453125,2317.800537109375,2327.4384765625,2337.70263671875,2341.944580078125,2346.83984375,2348.546142578125,2352.171630859375,2357.707275390625,2363.063232421875,2367.7119140625,2371.3056640625,2376.08935546875,2375.184814453125,2379.5615234375,2370.7158203125,2368.136962890625,2372.16162109375,2367.333251953125,2362.954833984375,2360.15673828125,2363.94921875,2348.556396484375,2341.952880859375,2348.560546875,2354.86962890625,2354.271728515625,2368.284912109375,2372.86669921875,2374.6337890625,2378.794921875,2381.185791015625,2384.14599609375,2383.805419921875,2386.5703125,2385.648193359375,2389.4296875,2391.427490234375,2398.009765625,2398.979248046875,2407.67333984375,2411.428955078125,2407.243408203125,2401.9638671875,2394.373291015625,2389.03369140625,2391.10205078125,2393.142578125,2392.142822265625,2395.581787109375,2395.745361328125,2398.54296875,2397.95947265625,2398.2509765625,2393.142333984375,2396.82763671875,2398.60498046875,2397.874755859375,2396.440185546875,2396.229736328125,2395.5859375,2400.60107421875,2403.151123046875,2403.66845703125,2398.50537109375,2402.57763671875,2402.327392578125,2395.419677734375,2404.77197265625,2418.533935546875,2421.48779296875,2424.038330078125,2426.450927734375,2429.377685546875,2431.6396484375,2434.197509765625,2436.004638671875,2429.692626953125,2426.684326171875,2409.922119140625,2407.18017578125,2410.95263671875,2411.9609375,2412.989990234375,2415.456298828125,2415.46630859375,2415.86328125,2415.933349609375,2417.243408203125,2416.310791015625,2414.61669921875,2414.284912109375,2406.66796875,2399.25732421875,2397.314697265625,2385.733642578125,2380.843994140625,2371.0556640625,2367.30810546875,2374.426513671875,2381.638916015625,2383.36572265625,2385.508056640625,2382.467529296875,2381.856689453125,2400.354248046875,2401.7099609375,2404.14697265625,2408.2861328125,2410.9453125,2413.94140625,2411.964599609375,2422.221923828125,2429.46728515625,2433.934326171875,2447.222412109375,2450.84716796875,2456.95361328125,2462.798828125,2467.786376953125,2471.78955078125,2476.18212890625,2480.008056640625,2484.75,2483.16796875,2483.152587890625,2488.326416015625,2489.82080078125,2482.156005859375,2488.56494140625,2484.360107421875,2484.2275390625,2481.35400390625,2475.68408203125,2469.216552734375,2474.3330078125,2476.41845703125,2476.7607421875,2478.094482421875,2478.5654296875,2484.79150390625,2486.2490234375,2490.846923828125,2494.4111328125,2499.619873046875,2504.970703125,2523.775634765625,2524.358154296875,2532.86376953125,2535.201416015625,2527.750732421875,2510.043212890625,2512.787109375,2519.85595703125,2513.946044921875,2510.983642578125,2503.246826171875,2506.756591796875,2502.47998046875,2485.325927734375,2463.965576171875,2460.603271484375,2454.859375,2458.510986328125,2462.819091796875,2461.961181640625,2464.112060546875,2461.2880859375,2471.472412109375,2476.076904296875,2473.925537109375,2477.9794921875,2480.243408203125,2480.883544921875,2485.9697265625,2490.942138671875,2474.59228515625]}}