{"latest":{"actual_weight":76.75,"predicted_adjusted_weight":88.86771392822266,"water_retention":-12.117713928222656,"base_metabolism_kcal":2438.24755859375},"series":{"actual_weight":[70.1,69.2,68.74395,68.2879,68.32,68.36,68.4,68.5,66.95,67.55,67.9,67.85,68.5,67.55,67.85,67.55,67.85,68.85,68.4,68.05,68.5,68.1,69.25,67.8,67.34,66.9627,67.1533,68.0,68.2,68.626,68.8,68.9,68.601,68.75,68.45,69.35,69.75,69.7,69.9,69.45,69.0,68.75,69.7,69.65,69.1,68.9,69.45,69.25,68.75,67.8,68.9,68.55,69.65,68.6,68.6,69.3,69.7,69.55,69.05,69.8,68.9,69.55,70.2,70.85,71.55,69.7,69.8,69.55,69.45,69.85,70.65,70.7,69.8,70.7,69.55,69.35,69.15,68.9,69.35,70.0,70.45,70.15,70.35,70.5,71.2,69.45,69.55,70.05,68.85,70.25,69.85,71.5,70.05,71.0,70.65,69.7,69.9,70.0,73.2,70.85,70.4,70.3,71.8,71.3,70.7,70.8,70.6,70.55,70.3,70.25,71.1,71.2,70.5,71.3,71.6,71.4,72.6,72.35,72.3,73.1,72.35,71.9,72.05,71.45,71.4,74.7,72.5,72.05,72.1,71.9,72.3,73.3,74.25,74.7,74.0,72.7,72.15,71.6,71.75,71.6,71.05,71.55,72.4,72.65,71.45,71.45,69.95,70.25,71.15,71.95,72.35,72.15,71.8,71.85,71.95,70.65,70.7,71.5,71.65,72.05,72.2,72.25,72.0,71.9,72.0,71.85,71.7,71.55,72.05,71.65,71.8,72.3,72.05,71.8,71.55,71.3,70.9,71.55,72.55,72.75,72.3,72.25,72.5,73.25,74.0,74.75,75.6,73.45,72.45,73.35,72.95,73.0,71.8,71.9,72.05,71.25,72.75,73.0,72.0,71.65,72.75,72.65,72.35,72.325,72.3,72.45,72.43,72.42,72.4,72.39,72.37,72.35,71.85,72.7,72.95,72.75,73.6,74.0,73.9,73.9,73.1,71.95,72.1,72.55,73.0,73.65,73.55,73.0,73.15,72.8,72.75,73.1,73.35,72.65,72.85,72.8,73.6,73.2,73.75,72.85,72.6,73.75,73.75,73.8,73.5,74.15,74.25,74.15,75.6,74.6,74.0,74.8,73.95,74.1,74.6,74.53,74.46,74.39,74.32,74.27,74.2,73.7,73.9,74.5,74.5,74.75,75.3,74.7,74.45,74.65,73.7,74.55,74.05,74.95,74.4,74.35,74.8,74.65,74.7,75.25,75.15,74.9,75.65,75.4,76.0,75.35,76.3,75.6,75.35,74.95,75.45,75.4,75.3,75.2625,75.225,75.1875,75.15,74.75,75.35,74.6,75.5,76.0,75.88125,75.76249999999999,75.64374999999998,75.52499999999998,75.40624999999997,75.28749999999997,75.16874999999996,75.05,74.65,75.15,74.65,74.2,74.95,75.8,75.95,75.55,75.15,75.45,74.65,74.65,75.05,76.2,75.65,75.55,74.55,74.55,75.15,75.85,75.9,75.4,75.75,76.0,75.65,75.9,75.6,75.85,75.55,75.7,75.05,75.9,75.2,75.2,75.3,76.45,75.95,75.6,76.0,75.8,75.5,76.0,76.45,76.4,76.55,75.9,76.4,75.5,76.6,75.45,75.55,75.75,76.5,75.35,74.8,76.35,76.35,75.05,74.75,75.9,75.9,75.75,75.55,75.0,75.1,75.3,75.0,74.6,74.5,75.0,75.2,75.2,75.0,74.8,74.6,75.625,76.65,75.6,74.8,75.75,76.05,77.15,76.75],"predicted_adjusted_weight":[68.93231201171875,68.79788208007812,68.72870635986328,68.63853454589844,68.53447723388672,68.40530395507812,68.26062774658203,68.16962432861328,68.07542419433594,67.97027587890625,67.85980224609375,67.8094253540039,67.7309341430664,67.6172103881836,67.56365966796875,67.53407287597656,67.45703887939453,67.4027328491211,67.36054229736328,67.3086929321289,67.25970458984375,67.21100616455078,67.17279815673828,67.14297485351562,67.11914825439453,67.04621887207031,66.94134521484375,66.9098129272461,66.91471862792969,67.05374908447266,67.00169372558594,66.9598388671875,66.9124984741211,66.8693618774414,66.83985137939453,66.79629516601562,66.7480697631836,66.7027816772461,66.64356994628906,66.58364868164062,66.5395736694336,66.4841079711914,66.52738952636719,66.5035171508789,66.45195007324219,66.31897735595703,66.27558898925781,66.2773666381836,66.28114318847656,66.2812271118164,66.2942123413086,66.29484558105469,66.31256866455078,66.34843444824219,66.43592834472656,66.51383209228516,66.52230072021484,66.63114166259766,66.62448120117188,66.75619506835938,66.69183349609375,66.64730072021484,66.62519836425781,67.1231460571289,67.13143920898438,67.01766967773438,66.97457122802734,66.89698791503906,66.79983520507812,66.75704956054688,66.8172607421875,66.82127380371094,66.74797058105469,66.66380310058594,66.73478698730469,66.64862060546875,66.6718978881836,66.6777572631836,66.6900634765625,66.75269317626953,66.77671813964844,66.83321380615234,66.8551254272461,66.89488220214844,67.04174041748047,67.02696228027344,67.1693344116211,67.12474060058594,67.19569396972656,67.29531860351562,67.29473114013672,67.637451171875,67.65849304199219,67.68142700195312,67.67530059814453,67.71043395996094,67.71477508544922,67.88240814208984,68.80572509765625,68.67841339111328,68.67024230957031,68.61931610107422,68.95690155029297,68.91667938232422,68.90245819091797,68.83385467529297,68.76294708251953,68.71315002441406,68.64884185791016,68.68160247802734,68.73451232910156,68.78111267089844,68.82466125488281,68.88251495361328,68.9396743774414,68.9820327758789,69.0354995727539,69.09241485595703,69.13961791992188,69.41119384765625,69.31070709228516,69.33502197265625,69.30023956298828,69.2678451538086,69.27505493164062,69.64474487304688,69.47834777832031,69.42341613769531,69.38792419433594,69.37490844726562,69.44556427001953,69.3863296508789,69.35103607177734,70.00081634521484,69.80123901367188,69.64630889892578,69.48796844482422,69.38400268554688,69.2907485961914,69.293212890625,69.2917709350586,69.31877136230469,69.32498931884766,69.38471221923828,69.40375518798828,69.42052459716797,69.7447509765625,69.59268951416016,69.59539031982422,69.61945343017578,69.6576156616211,69.71841430664062,69.83148956298828,69.8905258178711,69.99147033691406,69.91947174072266,69.94872283935547,69.99345397949219,70.0906982421875,70.13504028320312,70.18578338623047,70.24191284179688,70.27891540527344,70.30776977539062,70.39041137695312,70.4482192993164,70.5809326171875,70.7016372680664,70.74982452392578,70.81008911132812,70.87699127197266,71.00289154052734,71.38541412353516,71.64478302001953,71.84307098388672,71.89990997314453,71.88381958007812,72.10850524902344,72.3983383178711,72.55006408691406,72.53641510009766,72.58207702636719,72.68372344970703,72.8321533203125,73.19023132324219,73.6133804321289,73.6731948852539,73.630615234375,73.64561462402344,73.81800079345703,73.77906799316406,73.72115325927734,73.69375610351562,73.75508880615234,73.67530822753906,73.63478088378906,73.71910858154297,73.77668762207031,73.80089569091797,73.86936950683594,74.10604858398438,74.15092468261719,74.21094512939453,74.54669189453125,74.58356475830078,74.6162338256836,74.79502868652344,75.03003692626953,75.09385681152344,75.2898941040039,75.56137084960938,75.58358001708984,75.62446594238281,75.7694091796875,75.82344055175781,75.9078140258789,75.95645141601562,76.08891296386719,76.19319152832031,76.23506164550781,76.48513793945312,76.44613647460938,76.41744995117188,76.49158477783203,76.64950561523438,76.71378326416016,76.85745239257812,76.92393493652344,76.97325897216797,77.04130554199219,77.12046813964844,77.26890563964844,77.409912109375,77.48634338378906,77.68778228759766,77.83518981933594,77.9520034790039,78.07478332519531,78.25931549072266,78.3120346069336,78.45779418945312,78.71939086914062,78.96345520019531,79.06684112548828,79.29460906982422,79.5226058959961,79.58447265625,79.68653106689453,79.88479614257812,80.0240478515625,80.15866088867188,80.2825698852539,80.36614990234375,80.43102264404297,80.52469635009766,80.81781005859375,80.96227264404297,81.2564468383789,81.36662292480469,81.52542114257812,81.55634307861328,81.60562896728516,81.70210266113281,81.8450698852539,81.89083099365234,82.02918243408203,82.1836166381836,82.21368408203125,82.28482055664062,82.34547424316406,82.42115783691406,82.49871826171875,82.61396026611328,82.74188995361328,82.79288482666016,82.9184341430664,82.9913330078125,83.06892395019531,83.15911102294922,83.2325210571289,83.27978515625,83.39689636230469,83.48311614990234,83.56988525390625,83.69322967529297,83.81227111816406,83.8938217163086,83.92144775390625,83.9491958618164,84.00100708007812,84.06427001953125,84.12982177734375,84.18177795410156,84.38633728027344,84.46229553222656,84.61541748046875,84.66242218017578,84.73272705078125,84.78096008300781,84.8304443359375,84.88648223876953,84.91001892089844,84.95530700683594,85.0372314453125,85.13622283935547,85.19686889648438,85.26996612548828,85.31752014160156,85.37615203857422,85.45005798339844,85.48583984375,85.51859283447266,85.55804443359375,85.63505554199219,85.75358581542969,85.78923797607422,85.91583251953125,85.9833984375,86.05697631835938,86.09162902832031,86.19573974609375,86.27401733398438,86.59733581542969,86.6596908569336,86.72331237792969,86.78369903564453,86.83082580566406,86.88676452636719,86.98158264160156,87.10284423828125,87.15629577636719,87.22040557861328,87.27467346191406,87.32247924804688,87.43753051757812,87.49336242675781,87.55504608154297,87.6511001586914,87.70228576660156,87.72066497802734,87.68330383300781,87.71054077148438,87.73169708251953,87.80316162109375,87.80477142333984,87.89105987548828,87.93101501464844,87.9880599975586,88.06974792480469,88.11026763916016,88.11650085449219,88.19072723388672,88.20195007324219,88.22500610351562,88.2759780883789,88.26521301269531,88.3338394165039,88.47982788085938,88.4588623046875,88.40336608886719,88.3084716796875,88.27539825439453,88.28781127929688,88.4908676147461,88.28987121582031,88.2608642578125,88.28466796875,88.20016479492188,88.08717346191406,88.08932495117188,88.11180877685547,88.11122131347656,88.25131225585938,88.26727294921875,88.28694915771484,88.29789733886719,88.14047241210938,87.99699401855469,88.05258178710938,88.07038116455078,88.17471313476562,88.23115539550781,88.20716094970703,88.21439361572266,88.24299621582031,88.49205780029297,88.67745208740234,88.6875,88.76751708984375,88.74949645996094,88.76460266113281,88.8720703125,88.86771392822266],"water_retention":[1.1676879882812443,0.40211791992187784,0.015243640136716863,-0.3506345458984441,-0.21447723388672557,-0.04530395507812557,0.13937225341797443,0.33037567138671875,-1.1254241943359347,-0.42027587890625284,0.040197753906255684,0.040574645996088066,0.7690658569335938,-0.06721038818359659,0.2863403320312443,0.015927124023434658,0.39296112060546307,1.4472671508789006,1.0394577026367244,0.7413070678710909,1.24029541015625,0.8889938354492131,2.0772018432617188,0.6570251464843722,0.22085174560547216,-0.08351887207031439,0.21195478515625155,1.0901870727539062,1.2852813720703153,1.5722509155273485,1.7983062744140597,1.9401611328125057,1.6885015258789053,1.8806381225585938,1.6101486206054716,2.5537048339843693,3.0019302368164062,2.997218322753909,3.256430053710943,2.866351318359378,2.4604263305664062,2.2658920288085938,3.1726104736328153,3.1464828491210994,2.648049926757807,2.5810226440429744,3.1744110107421903,2.9726333618164062,2.4688568115234375,1.518772888183591,2.605787658691412,2.2551544189453097,3.3374313354492244,2.251565551757807,2.164071655273432,2.786167907714841,3.177699279785159,2.918858337402341,2.425518798828122,3.043804931640622,2.2081665039062557,2.9026992797851534,3.5748016357421903,3.726853942871088,4.418560791015622,2.682330322265628,2.8254287719726534,2.6530120849609347,2.650164794921878,3.0929504394531193,3.8327392578125057,3.8787261962890653,3.0520294189453097,4.036196899414065,2.8152130126953097,2.7013793945312443,2.478102111816412,2.222242736816412,2.6599365234374943,3.2473068237304688,3.6732818603515653,3.316786193847662,3.4948745727539006,3.6051177978515625,4.158259582519534,2.4230377197265653,2.3806655883789034,2.9252593994140597,1.6543060302734318,2.954681396484375,2.5552688598632756,3.862548828125,2.3915069580078097,3.318572998046875,2.9746994018554744,1.9895660400390653,2.185224914550787,2.1175918579101562,4.394274902343753,2.171586608886713,1.7297576904296932,1.6806838989257784,2.8430984497070284,2.3833206176757784,1.797541809082034,1.9661453247070284,1.837052917480463,1.8368499755859347,1.651158142089841,1.5683975219726562,2.365487670898432,2.4188873291015653,1.6753387451171875,2.417485046386716,2.660325622558588,2.4179672241210994,3.564500427246088,3.257585144042963,3.160382080078122,3.6888061523437443,3.039292907714838,2.5649780273437557,2.749760437011716,2.182154846191409,2.1249450683593807,5.055255126953128,3.0216522216796875,2.6265838623046847,2.712075805664057,2.5250915527343807,2.854435729980466,3.913670349121091,4.898963928222656,4.699183654785159,4.198760986328125,3.0536911010742216,2.662031555175787,2.2159973144531193,2.4592514038085938,2.3067871093749943,1.7582290649414034,2.2312286376953097,3.0750106811523494,3.2652877807617244,2.0462448120117216,2.029475402832034,0.20524902343750284,0.6573104858398438,1.554609680175787,2.3305465698242216,2.6923843383789006,2.4315856933593807,1.968510437011716,1.9594741821289006,1.9585296630859403,0.7305282592773494,0.7512771606445341,1.5065460205078125,1.5593017578125057,1.9149597167968722,2.014216613769534,2.008087158203125,1.7210845947265625,1.5922302246093807,1.609588623046875,1.401780700683588,1.1190673828125028,0.8483627319335909,1.300175476074216,0.8399108886718807,0.9230087280273409,1.2971084594726534,0.6645858764648409,0.1552169799804659,-0.2930709838867216,-0.5999099731445341,-0.9838195800781193,-0.5585052490234403,0.1516616821289034,0.1999359130859375,-0.2364151000976591,-0.3320770263671875,-0.18372344970703125,0.4178466796875,0.8097686767578125,1.1366195678710938,1.926805114746088,-0.18061523437499716,-1.1956146240234347,-0.46800079345703693,-0.8290679931640597,-0.7211532592773438,-1.8937561035156278,-1.855088806152338,-1.6253082275390653,-2.3847808837890625,-0.9691085815429688,-0.7766876220703125,-1.8008956909179688,-2.219369506835932,-1.356048583984375,-1.5009246826171818,-1.860945129394537,-2.221691894531247,-2.283564758300784,-2.166233825683591,-2.3650286865234307,-2.6100369262695295,-2.693856811523432,-2.8998941040039057,-3.1913708496093705,-3.2335800170898494,-3.774465942382818,-3.069409179687497,-2.8734405517578097,-3.1578140258789062,-2.3564514160156307,-2.0889129638671875,-2.293191528320307,-2.335061645507807,-3.3851379394531307,-4.496136474609372,-4.317449951171881,-3.941584777832034,-3.649505615234375,-3.0637832641601506,-3.307452392578128,-3.9239349365234375,-3.823258972167963,-4.24130554199219,-4.3704681396484375,-4.168905639648443,-4.059912109375006,-4.836343383789057,-4.837782287597662,-5.03518981933594,-4.352003479003912,-4.87478332519531,-4.509315490722656,-5.462034606933599,-5.857794189453131,-4.969390869140625,-5.2134552001953125,-5.266841125488284,-5.794609069824219,-5.372605895996088,-5.33447265625,-5.536531066894526,-4.284796142578131,-5.424047851562506,-6.158660888671875,-5.482569885253909,-6.416149902343747,-6.331022644042974,-5.924696350097662,-6.287810058593749,-6.502272644042975,-6.866446838378906,-7.046622924804694,-7.255421142578129,-7.356343078613278,-7.905628967285153,-7.802102661132807,-7.345069885253906,-7.390830993652344,-7.279182434082031,-6.883616638183597,-7.513684082031247,-7.834820556640622,-7.695474243164057,-8.72115783691406,-7.948718261718753,-8.563960266113284,-7.791889953613278,-8.39288482666015,-8.568434143066412,-8.191333007812503,-8.418923950195307,-8.459111022949216,-7.982521057128906,-8.129785156249994,-8.496896362304682,-7.833116149902338,-8.169885253906244,-7.693229675292969,-8.462271118164068,-7.593821716308597,-8.321447753906256,-8.599195861816412,-9.051007080078122,-8.614270019531247,-8.729821777343744,-8.881777954101565,-9.123837280273435,-9.237295532226568,-9.42791748046875,-9.512422180175776,-9.98272705078125,-9.430960083007818,-10.230444335937506,-9.386482238769531,-8.910018920898438,-9.074057006835943,-9.274731445312511,-9.492472839355486,-9.671868896484398,-9.86371612548831,-10.030020141601597,-10.207402038574259,-10.40005798339844,-10.835839843749994,-10.36859283447265,-10.908044433593744,-11.435055541992185,-10.803585815429685,-9.989237976074222,-9.965832519531247,-10.433398437500003,-10.90697631835937,-10.64162902832031,-11.545739746093744,-11.62401733398437,-11.54733581542969,-10.459690856933591,-11.073312377929682,-11.233699035644534,-12.280825805664065,-12.33676452636719,-11.831582641601557,-11.252844238281256,-11.256295776367182,-11.820405578613276,-11.524673461914062,-11.322479248046875,-11.78753051757812,-11.593362426757807,-11.955046081542974,-11.801100158691412,-12.152285766601565,-12.020664978027341,-12.633303833007815,-11.81054077148437,-12.531697082519528,-12.603161621093747,-12.504771423339847,-11.441059875488278,-11.981015014648435,-12.3880599975586,-12.069747924804688,-12.310267639160159,-12.616500854492188,-12.190727233886719,-11.751950073242185,-11.82500610351562,-11.725978088378909,-12.365213012695307,-11.9338394165039,-12.979827880859375,-11.858862304687506,-12.953366088867185,-12.758471679687503,-12.525398254394531,-11.787811279296875,-13.1408676147461,-13.489871215820315,-11.910864257812506,-11.934667968750006,-13.150164794921878,-13.337173461914062,-12.18932495117187,-12.211808776855463,-12.361221313476562,-12.701312255859378,-13.26727294921875,-13.18694915771485,-12.99789733886719,-13.140472412109375,-13.396994018554693,-13.552581787109375,-13.070381164550781,-12.974713134765622,-13.03115539550781,-13.207160949707031,-13.414393615722659,-13.642996215820318,-12.867057800292969,-12.027452087402338,-13.087500000000006,-13.967517089843753,-12.999496459960938,-12.714602661132815,-11.722070312499994,-12.117713928222656],"base_metabolism_kcal":[2484.845947265625,2469.257080078125,2460.41943359375,2448.8212890625,2436.1552734375,2425.697998046875,2419.474365234375,2409.458740234375,2404.900146484375,2400.427490234375,2396.49267578125,2389.96630859375,2388.573486328125,2385.42333984375,2373.34228515625,2370.961669921875,2365.35498046875,2359.257568359375,2353.371826171875,2346.200439453125,2341.665771484375,2333.2216796875,2327.328369140625,2315.4833984375,2304.193115234375,2291.67626953125,2273.988037109375,2263.07666015625,2258.918212890625,2254.410888671875,2252.065185546875,2247.840576171875,2245.7626953125,2238.50341796875,2233.746337890625,2227.769287109375,2227.48681640625,2225.890380859375,2214.167236328125,2208.246826171875,2201.649169921875,2206.955810546875,2202.748779296875,2196.598876953125,2193.436279296875,2184.883056640625,2178.786865234375,2177.792236328125,2175.92138671875,2172.60546875,2161.673583984375,2153.595947265625,2138.458251953125,2134.20263671875,2125.654052734375,2114.287109375,2108.494873046875,2092.282958984375,2082.635009765625,2075.947265625,2065.183837890625,2056.6796875,2046.638916015625,2040.1783447265625,2029.5870361328125,2021.4931640625,2012.69384765625,2000.93359375,1993.873779296875,1992.917724609375,1988.6954345703125,1979.9808349609375,1975.022216796875,1978.4779052734375,1968.17578125,1963.56005859375,1957.2044677734375,1951.6842041015625,1949.845703125,1953.611328125,1955.590087890625,1953.1859130859375,1956.7364501953125,1957.280517578125,1958.3746337890625,1963.32763671875,1957.044189453125,1951.104248046875,1949.6317138671875,1944.0906982421875,1943.385986328125,1936.103271484375,1930.106201171875,1922.5145263671875,1916.791015625,1908.7537841796875,1905.8450927734375,1932.0064697265625,1921.864501953125,1921.22265625,1915.009033203125,1915.02734375,1906.466064453125,1898.267822265625,1889.2218017578125,1880.805908203125,1872.9808349609375,1864.290283203125,1861.37841796875,1856.2984619140625,1851.968505859375,1849.5374755859375,1851.6163330078125,1848.720458984375,1847.916259765625,1852.1290283203125,1848.1805419921875,1849.4654541015625,1850.9222412109375,1840.5274658203125,1838.2200927734375,1835.987060546875,1833.72705078125,1834.671142578125,1832.69384765625,1819.4814453125,1811.998291015625,1808.8985595703125,1807.899169921875,1808.5947265625,1802.781982421875,1801.78759765625,1804.8118896484375,1787.786376953125,1773.36083984375,1759.9095458984375,1748.05078125,1736.4918212890625,1733.061279296875,1727.908203125,1725.8887939453125,1720.15380859375,1712.3887939453125,1703.77734375,1696.7957763671875,1716.9896240234375,1705.543701171875,1692.735595703125,1690.6942138671875,1694.3992919921875,1700.27001953125,1700.7701416015625,1704.794189453125,1712.4931640625,1701.7017822265625,1706.1846923828125,1703.0501708984375,1699.1221923828125,1699.8013916015625,1702.6820068359375,1703.357421875,1703.45068359375,1703.7913818359375,1700.7049560546875,1702.7393798828125,1702.3934326171875,1699.0706787109375,1695.673095703125,1693.781494140625,1700.8511962890625,1702.603759765625,1699.90771484375,1701.03271484375,1703.036865234375,1703.7674560546875,1696.198486328125,1704.477783203125,1715.1187744140625,1713.921142578125,1712.072998046875,1704.734375,1704.3974609375,1706.789306640625,1710.4215087890625,1726.0970458984375,1726.331298828125,1716.81640625,1715.627685546875,1720.847412109375,1713.6968994140625,1705.8060302734375,1698.7818603515625,1692.98876953125,1684.260498046875,1676.86962890625,1676.385498046875,1671.2763671875,1662.29638671875,1665.6962890625,1670.2557373046875,1670.2996826171875,1669.555419921875,1653.9326171875,1659.027587890625,1668.06201171875,1678.580810546875,1684.1285400390625,1681.95263671875,1684.714111328125,1664.4114990234375,1659.6942138671875,1661.74267578125,1672.16748046875,1683.972412109375,1682.4923095703125,1677.894287109375,1682.4429931640625,1685.620361328125,1677.561279296875,1692.8797607421875,1700.307861328125,1696.3734130859375,1697.43359375,1697.6751708984375,1698.9244384765625,1703.2550048828125,1707.72265625,1705.17138671875,1703.921875,1707.3616943359375,1707.14453125,1708.9097900390625,1703.755859375,1699.5302734375,1704.8265380859375,1702.283203125,1703.32958984375,1709.381591796875,1708.10595703125,1705.99853515625,1707.3150634765625,1707.041259765625,1707.701416015625,1723.40234375,1735.631103515625,1746.1212158203125,1750.3642578125,1760.979736328125,1760.3427734375,1764.22607421875,1773.3763427734375,1779.8385009765625,1777.51220703125,1777.435302734375,1785.153564453125,1791.9608154296875,1799.84228515625,1796.6898193359375,1803.02587890625,1801.9893798828125,1804.8077392578125,1810.5860595703125,1817.933349609375,1826.66650390625,1832.470947265625,1840.782470703125,1839.4197998046875,1839.732177734375,1842.33642578125,1843.98046875,1846.53515625,1852.5806884765625,1860.7103271484375,1868.4835205078125,1874.1845703125,1877.792236328125,1884.0074462890625,1884.1146240234375,1876.5904541015625,1872.7142333984375,1876.49560546875,1881.713134765625,1884.116455078125,1884.7261962890625,1875.7100830078125,1889.0028076171875,1896.1397705078125,1903.475830078125,1912.84814453125,1920.497802734375,1928.1728515625,1937.2977294921875,1941.040771484375,1940.0560302734375,1940.254150390625,1938.6583251953125,1948.2763671875,1962.0557861328125,1968.622802734375,1977.023193359375,1985.1536865234375,1996.0928955078125,2002.491455078125,2012.7391357421875,2018.882080078125,2025.4542236328125,2024.475830078125,2031.554443359375,2032.84814453125,2036.181640625,2039.3314208984375,2038.47021484375,2038.25,2044.5399169921875,2048.1044921875,2056.751708984375,2065.39453125,2073.287353515625,2076.404541015625,2080.18115234375,2086.283203125,2109.051025390625,2110.79541015625,2113.3994140625,2118.91162109375,2119.575927734375,2130.920166015625,2129.864501953125,2136.403564453125,2154.651123046875,2163.685791015625,2176.179931640625,2180.25146484375,2189.381591796875,2193.603271484375,2204.56591796875,2213.603271484375,2215.612060546875,2214.50830078125,2211.355712890625,2216.0830078125,2219.04443359375,2235.5703125,2238.208984375,2241.41357421875,2259.96826171875,2263.629150390625,2266.53466796875,2271.1123046875,2272.507080078125,2281.103515625,2293.093505859375,2296.412353515625,2301.8466796875,2307.234130859375,2312.073486328125,2327.294189453125,2334.491455078125,2347.153564453125,2350.580078125,2353.998779296875,2369.32763671875,2401.323974609375,2396.754638671875,2399.922119140625,2404.92333984375,2403.38037109375,2398.025390625,2397.695556640625,2396.0087890625,2396.025146484375,2403.08154296875,2402.965576171875,2405.141845703125,2403.840576171875,2398.446533203125,2389.578125,2387.470703125,2394.623291015625,2401.99365234375,2410.980224609375,2411.640625,2411.546630859375,2412.164306640625,2424.71142578125,2430.170654296875,2431.580322265625,2437.55908203125,2437.774658203125,2443.394775390625,2441.3681640625,2451.82666015625,2438.24755859375]}}